digraph Tree {
node [shape=box] ;
0 [label="X[12] <= 5.495\nmse = 82.55\nsamples = 327\nvalue = 22.609"] ;
1 [label="X[5] <= 7.433\nmse = 79.735\nsamples = 54\nvalue = 36.063"] ;
0 -> 1 [labeldistance=2.5, labelangle=45, headlabel="True"] ;
2 [label="X[2] <= 14.0\nmse = 41.377\nsamples = 35\nvalue = 32.09"] ;
1 -> 2 ;
3 [label="X[5] <= 6.743\nmse = 19.418\nsamples = 32\nvalue = 30.697"] ;
2 -> 3 ;
4 [label="X[12] <= 4.52\nmse = 9.541\nsamples = 12\nvalue = 27.07"] ;
3 -> 4 ;
5 [label="X[7] <= 4.388\nmse = 0.42\nsamples = 3\nvalue = 30.8"] ;
4 -> 5 ;
6 [label="mse = 0.0\nsamples = 1\nvalue = 31.5"] ;
5 -> 6 ;
7 [label="X[1] <= 82.5\nmse = 0.092\nsamples = 2\nvalue = 30.275"] ;
5 -> 7 ;
8 [label="mse = 0.0\nsamples = 1\nvalue = 30.8"] ;
7 -> 8 ;
9 [label="mse = -0.0\nsamples = 1\nvalue = 30.1"] ;
7 -> 9 ;
10 [label="X[9] <= 300.0\nmse = 6.161\nsamples = 9\nvalue = 25.765"] ;
4 -> 10 ;
11 [label="X[6] <= 22.25\nmse = 3.978\nsamples = 7\nvalue = 26.793"] ;
10 -> 11 ;
12 [label="X[2] <= 6.51\nmse = 0.036\nsamples = 2\nvalue = 24.867"] ;
11 -> 12 ;
13 [label="mse = 0.0\nsamples = 1\nvalue = 25.0"] ;
12 -> 13 ;
14 [label="mse = 0.0\nsamples = 1\nvalue = 24.6"] ;
12 -> 14 ;
15 [label="X[0] <= 0.018\nmse = 2.482\nsamples = 5\nvalue = 28.078"] ;
11 -> 15 ;
16 [label="mse = 0.0\nsamples = 1\nvalue = 24.0"] ;
15 -> 16 ;
17 [label="X[10] <= 18.85\nmse = 0.454\nsamples = 4\nvalue = 28.588"] ;
15 -> 17 ;
18 [label="X[0] <= 0.048\nmse = 0.092\nsamples = 2\nvalue = 29.225"] ;
17 -> 18 ;
19 [label="mse = 0.0\nsamples = 1\nvalue = 28.7"] ;
18 -> 19 ;
20 [label="mse = 0.0\nsamples = 1\nvalue = 29.4"] ;
18 -> 20 ;
21 [label="X[7] <= 5.259\nmse = 0.002\nsamples = 2\nvalue = 27.95"] ;
17 -> 21 ;
22 [label="mse = 0.0\nsamples = 1\nvalue = 27.9"] ;
21 -> 22 ;
23 [label="mse = -0.0\nsamples = 1\nvalue = 28.0"] ;
21 -> 23 ;
24 [label="X[5] <= 6.49\nmse = 0.022\nsamples = 2\nvalue = 22.68"] ;
10 -> 24 ;
25 [label="mse = 0.0\nsamples = 1\nvalue = 22.5"] ;
24 -> 25 ;
26 [label="mse = 0.0\nsamples = 1\nvalue = 22.8"] ;
24 -> 26 ;
27 [label="X[9] <= 253.0\nmse = 6.592\nsamples = 20\nvalue = 33.855"] ;
3 -> 27 ;
28 [label="X[0] <= 0.047\nmse = 2.162\nsamples = 8\nvalue = 36.22"] ;
27 -> 28 ;
29 [label="X[10] <= 18.5\nmse = 0.545\nsamples = 4\nvalue = 34.6"] ;
28 -> 29 ;
30 [label="X[12] <= 4.31\nmse = 0.087\nsamples = 3\nvalue = 35.0"] ;
29 -> 30 ;
31 [label="X[5] <= 7.105\nmse = 0.01\nsamples = 2\nvalue = 34.8"] ;
30 -> 31 ;
32 [label="mse = 0.0\nsamples = 1\nvalue = 34.9"] ;
31 -> 32 ;
33 [label="mse = 0.0\nsamples = 1\nvalue = 34.7"] ;
31 -> 33 ;
34 [label="mse = -0.0\nsamples = 1\nvalue = 35.4"] ;
30 -> 34 ;
35 [label="mse = -0.0\nsamples = 1\nvalue = 33.4"] ;
29 -> 35 ;
36 [label="X[2] <= 2.32\nmse = 0.323\nsamples = 4\nvalue = 37.3"] ;
28 -> 36 ;
37 [label="mse = 0.0\nsamples = 1\nvalue = 36.2"] ;
36 -> 37 ;
38 [label="X[11] <= 395.51\nmse = 0.098\nsamples = 3\nvalue = 37.52"] ;
36 -> 38 ;
39 [label="mse = 0.0\nsamples = 1\nvalue = 37.9"] ;
38 -> 39 ;
40 [label="X[6] <= 43.05\nmse = 0.002\nsamples = 2\nvalue = 37.267"] ;
38 -> 40 ;
41 [label="mse = 0.0\nsamples = 1\nvalue = 37.3"] ;
40 -> 41 ;
42 [label="mse = 0.0\nsamples = 1\nvalue = 37.2"] ;
40 -> 42 ;
43 [label="X[9] <= 384.0\nmse = 4.77\nsamples = 12\nvalue = 32.729"] ;
27 -> 43 ;
44 [label="X[6] <= 18.8\nmse = 1.477\nsamples = 9\nvalue = 31.694"] ;
43 -> 44 ;
45 [label="X[5] <= 6.999\nmse = 0.08\nsamples = 2\nvalue = 29.4"] ;
44 -> 45 ;
46 [label="mse = 0.0\nsamples = 1\nvalue = 29.6"] ;
45 -> 46 ;
47 [label="mse = 0.0\nsamples = 1\nvalue = 29.0"] ;
45 -> 47 ;
48 [label="X[8] <= 4.5\nmse = 0.305\nsamples = 7\nvalue = 32.223"] ;
44 -> 48 ;
49 [label="X[12] <= 3.845\nmse = 0.178\nsamples = 4\nvalue = 32.44"] ;
48 -> 49 ;
50 [label="X[5] <= 6.806\nmse = 0.036\nsamples = 2\nvalue = 32.133"] ;
49 -> 50 ;
51 [label="mse = 0.0\nsamples = 1\nvalue = 32.4"] ;
50 -> 51 ;
52 [label="mse = 0.0\nsamples = 1\nvalue = 32.0"] ;
50 -> 52 ;
53 [label="X[10] <= 16.55\nmse = 0.04\nsamples = 2\nvalue = 32.9"] ;
49 -> 53 ;
54 [label="mse = 0.0\nsamples = 1\nvalue = 32.7"] ;
53 -> 54 ;
55 [label="mse = -0.0\nsamples = 1\nvalue = 33.1"] ;
53 -> 55 ;
56 [label="X[9] <= 338.5\nmse = 0.047\nsamples = 3\nvalue = 31.5"] ;
48 -> 56 ;
57 [label="X[11] <= 384.52\nmse = 0.003\nsamples = 2\nvalue = 31.65"] ;
56 -> 57 ;
58 [label="mse = 0.0\nsamples = 1\nvalue = 31.7"] ;
57 -> 58 ;
59 [label="mse = 0.0\nsamples = 1\nvalue = 31.6"] ;
57 -> 59 ;
60 [label="mse = -0.0\nsamples = 1\nvalue = 31.2"] ;
56 -> 60 ;
61 [label="X[5] <= 7.181\nmse = 0.914\nsamples = 3\nvalue = 36.04"] ;
43 -> 61 ;
62 [label="X[11] <= 384.085\nmse = 0.08\nsamples = 2\nvalue = 36.8"] ;
61 -> 62 ;
63 [label="mse = 0.0\nsamples = 1\nvalue = 37.0"] ;
62 -> 63 ;
64 [label="mse = -0.0\nsamples = 1\nvalue = 36.4"] ;
62 -> 64 ;
65 [label="mse = 0.0\nsamples = 1\nvalue = 34.9"] ;
61 -> 65 ;
66 [label="X[10] <= 17.45\nmse = 12.11\nsamples = 3\nvalue = 48.26"] ;
2 -> 66 ;
67 [label="mse = 0.0\nsamples = 1\nvalue = 41.3"] ;
66 -> 67 ;
68 [label="mse = 0.0\nsamples = 2\nvalue = 50.0"] ;
66 -> 68 ;
69 [label="X[7] <= 1.938\nmse = 50.664\nsamples = 19\nvalue = 45.0"] ;
1 -> 69 ;
70 [label="mse = 0.0\nsamples = 1\nvalue = 21.9"] ;
69 -> 70 ;
71 [label="X[10] <= 17.9\nmse = 10.356\nsamples = 18\nvalue = 46.777"] ;
69 -> 71 ;
72 [label="X[5] <= 7.479\nmse = 7.08\nsamples = 15\nvalue = 47.595"] ;
71 -> 72 ;
73 [label="X[8] <= 4.0\nmse = 0.056\nsamples = 2\nvalue = 43.833"] ;
72 -> 73 ;
74 [label="mse = 0.0\nsamples = 1\nvalue = 44.0"] ;
73 -> 74 ;
75 [label="mse = 0.0\nsamples = 1\nvalue = 43.5"] ;
73 -> 75 ;
76 [label="X[10] <= 14.8\nmse = 5.601\nsamples = 13\nvalue = 48.189"] ;
72 -> 76 ;
77 [label="mse = 0.0\nsamples = 6\nvalue = 50.0"] ;
76 -> 77 ;
78 [label="X[12] <= 3.84\nmse = 5.557\nsamples = 7\nvalue = 46.873"] ;
76 -> 78 ;
79 [label="X[12] <= 3.115\nmse = 3.042\nsamples = 2\nvalue = 44.167"] ;
78 -> 79 ;
80 [label="mse = 0.0\nsamples = 1\nvalue = 41.7"] ;
79 -> 80 ;
81 [label="mse = 0.0\nsamples = 1\nvalue = 45.4"] ;
79 -> 81 ;
82 [label="X[12] <= 4.295\nmse = 2.724\nsamples = 5\nvalue = 47.888"] ;
78 -> 82 ;
83 [label="X[4] <= 0.506\nmse = 1.648\nsamples = 3\nvalue = 47.183"] ;
82 -> 83 ;
84 [label="X[5] <= 7.976\nmse = 0.802\nsamples = 2\nvalue = 46.067"] ;
83 -> 84 ;
85 [label="mse = 0.0\nsamples = 1\nvalue = 46.7"] ;
84 -> 85 ;
86 [label="mse = 0.0\nsamples = 1\nvalue = 44.8"] ;
84 -> 86 ;
87 [label="mse = 0.0\nsamples = 1\nvalue = 48.3"] ;
83 -> 87 ;
88 [label="mse = 0.0\nsamples = 2\nvalue = 50.0"] ;
82 -> 88 ;
89 [label="X[12] <= 3.89\nmse = 4.427\nsamples = 3\nvalue = 42.275"] ;
71 -> 89 ;
90 [label="X[10] <= 18.55\nmse = 0.222\nsamples = 2\nvalue = 43.467"] ;
89 -> 90 ;
91 [label="mse = 0.0\nsamples = 1\nvalue = 43.8"] ;
90 -> 91 ;
92 [label="mse = 0.0\nsamples = 1\nvalue = 42.8"] ;
90 -> 92 ;
93 [label="mse = 0.0\nsamples = 1\nvalue = 38.7"] ;
89 -> 93 ;
94 [label="X[12] <= 14.915\nmse = 34.774\nsamples = 273\nvalue = 19.659"] ;
0 -> 94 [labeldistance=2.5, labelangle=-45, headlabel="False"] ;
95 [label="X[5] <= 6.717\nmse = 21.345\nsamples = 168\nvalue = 22.766"] ;
94 -> 95 ;
96 [label="X[7] <= 1.34\nmse = 13.551\nsamples = 147\nvalue = 21.836"] ;
95 -> 96 ;
97 [label="mse = 0.0\nsamples = 1\nvalue = 50.0"] ;
96 -> 97 ;
98 [label="X[12] <= 9.65\nmse = 10.007\nsamples = 146\nvalue = 21.709"] ;
96 -> 98 ;
99 [label="X[9] <= 208.0\nmse = 11.215\nsamples = 60\nvalue = 23.33"] ;
98 -> 99 ;
100 [label="X[6] <= 78.9\nmse = 2.567\nsamples = 2\nvalue = 35.275"] ;
99 -> 100 ;
101 [label="mse = 0.0\nsamples = 1\nvalue = 36.2"] ;
100 -> 101 ;
102 [label="mse = -0.0\nsamples = 1\nvalue = 32.5"] ;
100 -> 102 ;
103 [label="X[5] <= 6.053\nmse = 4.751\nsamples = 58\nvalue = 22.78"] ;
99 -> 103 ;
104 [label="X[0] <= 2.592\nmse = 5.555\nsamples = 14\nvalue = 20.77"] ;
103 -> 104 ;
105 [label="X[11] <= 393.755\nmse = 1.359\nsamples = 13\nvalue = 20.129"] ;
104 -> 105 ;
106 [label="X[6] <= 22.6\nmse = 0.236\nsamples = 3\nvalue = 18.933"] ;
105 -> 106 ;
107 [label="X[12] <= 7.92\nmse = 0.036\nsamples = 2\nvalue = 18.467"] ;
106 -> 107 ;
108 [label="mse = 0.0\nsamples = 1\nvalue = 18.6"] ;
107 -> 108 ;
109 [label="mse = -0.0\nsamples = 1\nvalue = 18.2"] ;
107 -> 109 ;
110 [label="mse = -0.0\nsamples = 1\nvalue = 19.4"] ;
106 -> 110 ;
111 [label="X[6] <= 44.35\nmse = 1.009\nsamples = 10\nvalue = 20.607"] ;
105 -> 111 ;
112 [label="X[5] <= 5.942\nmse = 0.673\nsamples = 6\nvalue = 21.167"] ;
111 -> 112 ;
113 [label="X[9] <= 371.5\nmse = 0.055\nsamples = 4\nvalue = 20.817"] ;
112 -> 113 ;
114 [label="X[6] <= 37.25\nmse = 0.002\nsamples = 3\nvalue = 20.92"] ;
113 -> 114 ;
115 [label="mse = 0.0\nsamples = 2\nvalue = 20.9"] ;
114 -> 115 ;
116 [label="mse = 0.0\nsamples = 1\nvalue = 21.0"] ;
114 -> 116 ;
117 [label="mse = 0.0\nsamples = 1\nvalue = 20.3"] ;
113 -> 117 ;
118 [label="X[4] <= 0.477\nmse = 1.176\nsamples = 2\nvalue = 21.867"] ;
112 -> 118 ;
119 [label="mse = 0.0\nsamples = 1\nvalue = 23.4"] ;
118 -> 119 ;
120 [label="mse = 0.0\nsamples = 1\nvalue = 21.1"] ;
118 -> 120 ;
121 [label="X[6] <= 57.5\nmse = 0.336\nsamples = 4\nvalue = 19.767"] ;
111 -> 121 ;
122 [label="X[12] <= 8.085\nmse = 0.13\nsamples = 3\nvalue = 19.98"] ;
121 -> 122 ;
123 [label="mse = 0.0\nsamples = 1\nvalue = 20.4"] ;
122 -> 123 ;
124 [label="X[9] <= 295.5\nmse = 0.02\nsamples = 2\nvalue = 19.7"] ;
122 -> 124 ;
125 [label="mse = 0.0\nsamples = 1\nvalue = 19.6"] ;
124 -> 125 ;
126 [label="mse = 0.0\nsamples = 1\nvalue = 19.9"] ;
124 -> 126 ;
127 [label="mse = -0.0\nsamples = 1\nvalue = 18.7"] ;
121 -> 127 ;
128 [label="mse = 0.0\nsamples = 1\nvalue = 27.5"] ;
104 -> 128 ;
129 [label="X[0] <= 0.075\nmse = 2.487\nsamples = 44\nvalue = 23.503"] ;
103 -> 129 ;
130 [label="X[12] <= 6.325\nmse = 1.76\nsamples = 20\nvalue = 22.704"] ;
129 -> 130 ;
131 [label="X[9] <= 247.0\nmse = 0.891\nsamples = 5\nvalue = 24.283"] ;
130 -> 131 ;
132 [label="mse = 0.0\nsamples = 1\nvalue = 22.2"] ;
131 -> 132 ;
133 [label="X[10] <= 17.75\nmse = 0.028\nsamples = 4\nvalue = 24.7"] ;
131 -> 133 ;
134 [label="X[11] <= 396.25\nmse = 0.007\nsamples = 3\nvalue = 24.625"] ;
133 -> 134 ;
135 [label="X[11] <= 393.27\nmse = 0.003\nsamples = 2\nvalue = 24.55"] ;
134 -> 135 ;
136 [label="mse = 0.0\nsamples = 1\nvalue = 24.5"] ;
135 -> 136 ;
137 [label="mse = 0.0\nsamples = 1\nvalue = 24.6"] ;
135 -> 137 ;
138 [label="mse = 0.0\nsamples = 1\nvalue = 24.7"] ;
134 -> 138 ;
139 [label="mse = 0.0\nsamples = 1\nvalue = 25.0"] ;
133 -> 139 ;
140 [label="X[11] <= 371.89\nmse = 1.092\nsamples = 15\nvalue = 22.252"] ;
130 -> 140 ;
141 [label="mse = 0.0\nsamples = 1\nvalue = 19.8"] ;
140 -> 141 ;
142 [label="X[10] <= 19.6\nmse = 0.831\nsamples = 14\nvalue = 22.375"] ;
140 -> 142 ;
143 [label="X[5] <= 6.605\nmse = 0.556\nsamples = 12\nvalue = 22.567"] ;
142 -> 143 ;
144 [label="X[8] <= 2.5\nmse = 0.375\nsamples = 10\nvalue = 22.4"] ;
143 -> 144 ;
145 [label="X[5] <= 6.413\nmse = 0.034\nsamples = 3\nvalue = 21.82"] ;
144 -> 145 ;
146 [label="X[6] <= 52.95\nmse = 0.002\nsamples = 2\nvalue = 21.967"] ;
145 -> 146 ;
147 [label="mse = 0.0\nsamples = 1\nvalue = 21.9"] ;
146 -> 147 ;
148 [label="mse = -0.0\nsamples = 1\nvalue = 22.0"] ;
146 -> 148 ;
149 [label="mse = 0.0\nsamples = 1\nvalue = 21.6"] ;
145 -> 149 ;
150 [label="X[11] <= 396.325\nmse = 0.308\nsamples = 7\nvalue = 22.664"] ;
144 -> 150 ;
151 [label="X[12] <= 8.3\nmse = 0.136\nsamples = 5\nvalue = 22.467"] ;
150 -> 151 ;
152 [label="X[9] <= 390.5\nmse = 0.042\nsamples = 3\nvalue = 22.76"] ;
151 -> 152 ;
153 [label="X[7] <= 6.101\nmse = 0.01\nsamples = 2\nvalue = 23.0"] ;
152 -> 153 ;
154 [label="mse = 0.0\nsamples = 1\nvalue = 22.9"] ;
153 -> 154 ;
155 [label="mse = 0.0\nsamples = 1\nvalue = 23.1"] ;
153 -> 155 ;
156 [label="mse = 0.0\nsamples = 1\nvalue = 22.6"] ;
152 -> 156 ;
157 [label="X[5] <= 6.355\nmse = 0.01\nsamples = 2\nvalue = 22.1"] ;
151 -> 157 ;
158 [label="mse = 0.0\nsamples = 1\nvalue = 22.2"] ;
157 -> 158 ;
159 [label="mse = -0.0\nsamples = 1\nvalue = 22.0"] ;
157 -> 159 ;
160 [label="X[4] <= 0.427\nmse = 0.123\nsamples = 2\nvalue = 23.55"] ;
150 -> 160 ;
161 [label="mse = 0.0\nsamples = 1\nvalue = 23.2"] ;
160 -> 161 ;
162 [label="mse = 0.0\nsamples = 1\nvalue = 23.9"] ;
160 -> 162 ;
163 [label="mse = 0.0\nsamples = 2\nvalue = 23.9"] ;
143 -> 163 ;
164 [label="X[11] <= 393.15\nmse = 0.002\nsamples = 2\nvalue = 20.65"] ;
142 -> 164 ;
165 [label="mse = 0.0\nsamples = 1\nvalue = 20.7"] ;
164 -> 165 ;
166 [label="mse = 0.0\nsamples = 1\nvalue = 20.6"] ;
164 -> 166 ;
167 [label="X[8] <= 2.5\nmse = 2.21\nsamples = 24\nvalue = 24.086"] ;
129 -> 167 ;
168 [label="mse = 0.0\nsamples = 1\nvalue = 28.4"] ;
167 -> 168 ;
169 [label="X[2] <= 10.245\nmse = 1.74\nsamples = 23\nvalue = 23.967"] ;
167 -> 169 ;
170 [label="X[5] <= 6.134\nmse = 1.248\nsamples = 15\nvalue = 23.575"] ;
169 -> 170 ;
171 [label="X[7] <= 4.181\nmse = 0.18\nsamples = 2\nvalue = 21.8"] ;
170 -> 171 ;
172 [label="mse = 0.0\nsamples = 1\nvalue = 22.1"] ;
171 -> 172 ;
173 [label="mse = -0.0\nsamples = 1\nvalue = 21.2"] ;
171 -> 173 ;
174 [label="X[12] <= 6.66\nmse = 0.886\nsamples = 13\nvalue = 23.829"] ;
170 -> 174 ;
175 [label="X[11] <= 396.59\nmse = 0.315\nsamples = 4\nvalue = 24.55"] ;
174 -> 175 ;
176 [label="X[0] <= 0.111\nmse = 0.122\nsamples = 2\nvalue = 24.05"] ;
175 -> 176 ;
177 [label="mse = 0.0\nsamples = 1\nvalue = 23.7"] ;
176 -> 177 ;
178 [label="mse = 0.0\nsamples = 1\nvalue = 24.4"] ;
176 -> 178 ;
179 [label="X[8] <= 4.0\nmse = 0.008\nsamples = 2\nvalue = 25.05"] ;
175 -> 179 ;
180 [label="mse = 0.0\nsamples = 1\nvalue = 25.2"] ;
179 -> 180 ;
181 [label="mse = 0.0\nsamples = 1\nvalue = 25.0"] ;
179 -> 181 ;
182 [label="X[12] <= 8.47\nmse = 0.72\nsamples = 9\nvalue = 23.385"] ;
174 -> 182 ;
183 [label="X[6] <= 61.05\nmse = 0.363\nsamples = 5\nvalue = 22.9"] ;
182 -> 183 ;
184 [label="X[11] <= 393.79\nmse = 0.009\nsamples = 3\nvalue = 23.233"] ;
183 -> 184 ;
185 [label="mse = 0.0\nsamples = 2\nvalue = 23.3"] ;
184 -> 185 ;
186 [label="mse = -0.0\nsamples = 1\nvalue = 23.1"] ;
184 -> 186 ;
187 [label="X[12] <= 7.315\nmse = 0.09\nsamples = 2\nvalue = 21.9"] ;
183 -> 187 ;
188 [label="mse = 0.0\nsamples = 1\nvalue = 22.2"] ;
187 -> 188 ;
189 [label="mse = 0.0\nsamples = 1\nvalue = 21.6"] ;
187 -> 189 ;
190 [label="X[11] <= 391.975\nmse = 0.314\nsamples = 4\nvalue = 24.16"] ;
182 -> 190 ;
191 [label="X[6] <= 62.8\nmse = 0.09\nsamples = 2\nvalue = 24.8"] ;
190 -> 191 ;
192 [label="mse = 0.0\nsamples = 1\nvalue = 24.5"] ;
191 -> 192 ;
193 [label="mse = 0.0\nsamples = 1\nvalue = 25.1"] ;
191 -> 193 ;
194 [label="X[6] <= 85.7\nmse = 0.009\nsamples = 2\nvalue = 23.733"] ;
190 -> 194 ;
195 [label="mse = 0.0\nsamples = 1\nvalue = 23.6"] ;
194 -> 195 ;
196 [label="mse = 0.0\nsamples = 1\nvalue = 23.8"] ;
194 -> 196 ;
197 [label="X[6] <= 25.35\nmse = 1.804\nsamples = 8\nvalue = 24.75"] ;
169 -> 197 ;
198 [label="X[10] <= 18.95\nmse = 0.055\nsamples = 3\nvalue = 23.883"] ;
197 -> 198 ;
199 [label="X[11] <= 395.91\nmse = 0.01\nsamples = 2\nvalue = 23.98"] ;
198 -> 199 ;
200 [label="mse = 0.0\nsamples = 1\nvalue = 24.1"] ;
199 -> 200 ;
201 [label="mse = 0.0\nsamples = 1\nvalue = 23.9"] ;
199 -> 201 ;
202 [label="mse = -0.0\nsamples = 1\nvalue = 23.4"] ;
198 -> 202 ;
203 [label="X[0] <= 0.169\nmse = 2.051\nsamples = 5\nvalue = 25.617"] ;
197 -> 203 ;
204 [label="mse = 0.0\nsamples = 1\nvalue = 28.1"] ;
203 -> 204 ;
205 [label="X[12] <= 5.965\nmse = 0.982\nsamples = 4\nvalue = 25.12"] ;
203 -> 205 ;
206 [label="mse = 0.0\nsamples = 1\nvalue = 27.0"] ;
205 -> 206 ;
207 [label="X[10] <= 16.65\nmse = 0.123\nsamples = 3\nvalue = 24.65"] ;
205 -> 207 ;
208 [label="mse = 0.0\nsamples = 1\nvalue = 24.3"] ;
207 -> 208 ;
209 [label="mse = 0.0\nsamples = 2\nvalue = 25.0"] ;
207 -> 209 ;
210 [label="X[11] <= 114.685\nmse = 6.036\nsamples = 86\nvalue = 20.575"] ;
98 -> 210 ;
211 [label="X[12] <= 13.275\nmse = 7.906\nsamples = 3\nvalue = 16.06"] ;
210 -> 211 ;
212 [label="X[12] <= 11.33\nmse = 1.562\nsamples = 2\nvalue = 17.35"] ;
211 -> 212 ;
213 [label="mse = 0.0\nsamples = 1\nvalue = 18.6"] ;
212 -> 213 ;
214 [label="mse = 0.0\nsamples = 1\nvalue = 16.1"] ;
212 -> 214 ;
215 [label="mse = -0.0\nsamples = 1\nvalue = 10.9"] ;
211 -> 215 ;
216 [label="X[7] <= 5.588\nmse = 5.113\nsamples = 83\nvalue = 20.755"] ;
210 -> 216 ;
217 [label="X[2] <= 3.215\nmse = 4.734\nsamples = 72\nvalue = 21.056"] ;
216 -> 217 ;
218 [label="mse = 0.0\nsamples = 1\nvalue = 29.6"] ;
217 -> 218 ;
219 [label="X[10] <= 17.6\nmse = 4.096\nsamples = 71\nvalue = 20.977"] ;
217 -> 219 ;
220 [label="X[12] <= 11.84\nmse = 3.364\nsamples = 12\nvalue = 22.429"] ;
219 -> 220 ;
221 [label="X[11] <= 385.375\nmse = 0.912\nsamples = 8\nvalue = 23.242"] ;
220 -> 221 ;
222 [label="X[11] <= 268.625\nmse = 0.202\nsamples = 4\nvalue = 24.18"] ;
221 -> 222 ;
223 [label="mse = 0.0\nsamples = 1\nvalue = 25.0"] ;
222 -> 223 ;
224 [label="X[7] <= 3.662\nmse = 0.042\nsamples = 3\nvalue = 23.975"] ;
222 -> 224 ;
225 [label="X[9] <= 355.0\nmse = 0.009\nsamples = 2\nvalue = 23.867"] ;
224 -> 225 ;
226 [label="mse = 0.0\nsamples = 1\nvalue = 24.0"] ;
225 -> 226 ;
227 [label="mse = 0.0\nsamples = 1\nvalue = 23.8"] ;
225 -> 227 ;
228 [label="mse = -0.0\nsamples = 1\nvalue = 24.3"] ;
224 -> 228 ;
229 [label="X[7] <= 4.529\nmse = 0.342\nsamples = 4\nvalue = 22.571"] ;
221 -> 229 ;
230 [label="X[7] <= 2.988\nmse = 0.054\nsamples = 3\nvalue = 22.92"] ;
229 -> 230 ;
231 [label="X[9] <= 333.5\nmse = 0.002\nsamples = 2\nvalue = 22.733"] ;
230 -> 231 ;
232 [label="mse = 0.0\nsamples = 1\nvalue = 22.8"] ;
231 -> 232 ;
233 [label="mse = -0.0\nsamples = 1\nvalue = 22.7"] ;
231 -> 233 ;
234 [label="mse = -0.0\nsamples = 1\nvalue = 23.2"] ;
230 -> 234 ;
235 [label="mse = 0.0\nsamples = 1\nvalue = 21.7"] ;
229 -> 235 ;
236 [label="X[5] <= 5.946\nmse = 3.866\nsamples = 4\nvalue = 20.48"] ;
220 -> 236 ;
237 [label="X[5] <= 5.878\nmse = 0.722\nsamples = 2\nvalue = 18.25"] ;
236 -> 237 ;
238 [label="mse = 0.0\nsamples = 1\nvalue = 17.4"] ;
237 -> 238 ;
239 [label="mse = -0.0\nsamples = 1\nvalue = 19.1"] ;
237 -> 239 ;
240 [label="X[9] <= 357.0\nmse = 0.436\nsamples = 2\nvalue = 21.967"] ;
236 -> 240 ;
241 [label="mse = 0.0\nsamples = 1\nvalue = 22.9"] ;
240 -> 241 ;
242 [label="mse = -0.0\nsamples = 1\nvalue = 21.5"] ;
240 -> 242 ;
243 [label="X[9] <= 291.5\nmse = 3.765\nsamples = 59\nvalue = 20.705"] ;
219 -> 243 ;
244 [label="X[11] <= 396.445\nmse = 3.81\nsamples = 14\nvalue = 21.914"] ;
243 -> 244 ;
245 [label="X[5] <= 6.039\nmse = 2.487\nsamples = 9\nvalue = 22.7"] ;
244 -> 245 ;
246 [label="X[6] <= 36.15\nmse = 1.562\nsamples = 7\nvalue = 21.85"] ;
245 -> 246 ;
247 [label="mse = 0.0\nsamples = 1\nvalue = 24.7"] ;
246 -> 247 ;
248 [label="X[11] <= 388.9\nmse = 0.733\nsamples = 6\nvalue = 21.533"] ;
246 -> 248 ;
249 [label="X[11] <= 381.345\nmse = 0.325\nsamples = 4\nvalue = 20.7"] ;
248 -> 249 ;
250 [label="X[10] <= 19.15\nmse = 0.023\nsamples = 2\nvalue = 20.15"] ;
249 -> 250 ;
251 [label="mse = 0.0\nsamples = 1\nvalue = 20.3"] ;
250 -> 251 ;
252 [label="mse = 0.0\nsamples = 1\nvalue = 20.0"] ;
250 -> 252 ;
253 [label="X[7] <= 3.211\nmse = 0.023\nsamples = 2\nvalue = 21.25"] ;
249 -> 253 ;
254 [label="mse = 0.0\nsamples = 1\nvalue = 21.4"] ;
253 -> 254 ;
255 [label="mse = 0.0\nsamples = 1\nvalue = 21.1"] ;
253 -> 255 ;
256 [label="X[5] <= 5.942\nmse = 0.06\nsamples = 2\nvalue = 22.2"] ;
248 -> 256 ;
257 [label="mse = 0.0\nsamples = 1\nvalue = 22.0"] ;
256 -> 257 ;
258 [label="mse = 0.0\nsamples = 1\nvalue = 22.5"] ;
256 -> 258 ;
259 [label="mse = 0.0\nsamples = 2\nvalue = 24.4"] ;
245 -> 259 ;
260 [label="X[6] <= 28.05\nmse = 1.716\nsamples = 5\nvalue = 19.95"] ;
244 -> 260 ;
261 [label="mse = 0.0\nsamples = 1\nvalue = 22.6"] ;
260 -> 261 ;
262 [label="X[0] <= 0.049\nmse = 0.374\nsamples = 4\nvalue = 19.42"] ;
260 -> 262 ;
263 [label="mse = 0.0\nsamples = 1\nvalue = 20.6"] ;
262 -> 263 ;
264 [label="X[8] <= 4.0\nmse = 0.032\nsamples = 3\nvalue = 19.125"] ;
262 -> 264 ;
265 [label="mse = 0.0\nsamples = 1\nvalue = 19.3"] ;
264 -> 265 ;
266 [label="X[12] <= 9.71\nmse = 0.003\nsamples = 2\nvalue = 18.95"] ;
264 -> 266 ;
267 [label="mse = 0.0\nsamples = 1\nvalue = 18.9"] ;
266 -> 267 ;
268 [label="mse = 0.0\nsamples = 1\nvalue = 19.0"] ;
266 -> 268 ;
269 [label="X[12] <= 14.475\nmse = 3.182\nsamples = 45\nvalue = 20.343"] ;
243 -> 269 ;
270 [label="X[9] <= 345.5\nmse = 2.802\nsamples = 40\nvalue = 20.535"] ;
269 -> 270 ;
271 [label="X[0] <= 1.179\nmse = 5.92\nsamples = 9\nvalue = 19.175"] ;
270 -> 271 ;
272 [label="X[5] <= 6.105\nmse = 3.373\nsamples = 7\nvalue = 19.95"] ;
271 -> 272 ;
273 [label="X[6] <= 77.2\nmse = 2.313\nsamples = 4\nvalue = 18.9"] ;
272 -> 273 ;
274 [label="X[12] <= 10.83\nmse = 0.002\nsamples = 2\nvalue = 20.267"] ;
273 -> 274 ;
275 [label="mse = 0.0\nsamples = 1\nvalue = 20.3"] ;
274 -> 275 ;
276 [label="mse = 0.0\nsamples = 1\nvalue = 20.2"] ;
274 -> 276 ;
277 [label="X[12] <= 10.88\nmse = 0.889\nsamples = 2\nvalue = 17.533"] ;
273 -> 277 ;
278 [label="mse = 0.0\nsamples = 1\nvalue = 18.2"] ;
277 -> 278 ;
279 [label="mse = 0.0\nsamples = 1\nvalue = 16.2"] ;
277 -> 279 ;
280 [label="X[0] <= 0.439\nmse = 0.827\nsamples = 3\nvalue = 21.525"] ;
272 -> 280 ;
281 [label="mse = 0.0\nsamples = 1\nvalue = 23.1"] ;
280 -> 281 ;
282 [label="mse = 0.0\nsamples = 2\nvalue = 21.0"] ;
280 -> 282 ;
283 [label="X[5] <= 5.523\nmse = 0.64\nsamples = 2\nvalue = 15.3"] ;
271 -> 283 ;
284 [label="mse = 0.0\nsamples = 1\nvalue = 16.1"] ;
283 -> 284 ;
285 [label="mse = 0.0\nsamples = 1\nvalue = 14.5"] ;
283 -> 285 ;
286 [label="X[0] <= 0.465\nmse = 1.582\nsamples = 31\nvalue = 20.843"] ;
270 -> 286 ;
287 [label="X[6] <= 59.8\nmse = 1.256\nsamples = 16\nvalue = 20.285"] ;
286 -> 287 ;
288 [label="X[11] <= 390.225\nmse = 0.197\nsamples = 4\nvalue = 21.378"] ;
287 -> 288 ;
289 [label="X[11] <= 386.68\nmse = 0.03\nsamples = 2\nvalue = 20.9"] ;
288 -> 289 ;
290 [label="mse = 0.0\nsamples = 1\nvalue = 21.2"] ;
289 -> 290 ;
291 [label="mse = 0.0\nsamples = 1\nvalue = 20.8"] ;
289 -> 291 ;
292 [label="X[6] <= 54.2\nmse = 0.002\nsamples = 2\nvalue = 21.76"] ;
288 -> 292 ;
293 [label="mse = 0.0\nsamples = 1\nvalue = 21.8"] ;
292 -> 293 ;
294 [label="mse = -0.0\nsamples = 1\nvalue = 21.7"] ;
292 -> 294 ;
295 [label="X[5] <= 6.595\nmse = 0.89\nsamples = 12\nvalue = 19.739"] ;
287 -> 295 ;
296 [label="X[0] <= 0.141\nmse = 0.359\nsamples = 11\nvalue = 19.559"] ;
295 -> 296 ;
297 [label="X[12] <= 13.72\nmse = 0.036\nsamples = 5\nvalue = 20.112"] ;
296 -> 297 ;
298 [label="X[6] <= 93.55\nmse = 0.011\nsamples = 4\nvalue = 20.017"] ;
297 -> 298 ;
299 [label="X[7] <= 3.237\nmse = 0.002\nsamples = 3\nvalue = 20.06"] ;
298 -> 299 ;
300 [label="mse = -0.0\nsamples = 2\nvalue = 20.1"] ;
299 -> 300 ;
301 [label="mse = 0.0\nsamples = 1\nvalue = 20.0"] ;
299 -> 301 ;
302 [label="mse = 0.0\nsamples = 1\nvalue = 19.8"] ;
298 -> 302 ;
303 [label="mse = 0.0\nsamples = 1\nvalue = 20.4"] ;
297 -> 303 ;
304 [label="X[11] <= 395.97\nmse = 0.131\nsamples = 6\nvalue = 19.067"] ;
296 -> 304 ;
305 [label="X[11] <= 390.12\nmse = 0.065\nsamples = 5\nvalue = 19.162"] ;
304 -> 305 ;
306 [label="mse = 0.0\nsamples = 1\nvalue = 18.5"] ;
305 -> 306 ;
307 [label="X[12] <= 13.02\nmse = 0.002\nsamples = 4\nvalue = 19.257"] ;
305 -> 307 ;
308 [label="mse = 0.0\nsamples = 2\nvalue = 19.2"] ;
307 -> 308 ;
309 [label="mse = -0.0\nsamples = 2\nvalue = 19.3"] ;
307 -> 309 ;
310 [label="mse = -0.0\nsamples = 1\nvalue = 18.3"] ;
304 -> 310 ;
311 [label="mse = -0.0\nsamples = 1\nvalue = 22.8"] ;
295 -> 311 ;
312 [label="X[6] <= 97.05\nmse = 1.26\nsamples = 15\nvalue = 21.423"] ;
286 -> 312 ;
313 [label="X[0] <= 3.621\nmse = 0.92\nsamples = 13\nvalue = 21.127"] ;
312 -> 313 ;
314 [label="mse = 0.0\nsamples = 1\nvalue = 23.2"] ;
313 -> 314 ;
315 [label="X[4] <= 0.715\nmse = 0.75\nsamples = 12\nvalue = 21.029"] ;
313 -> 315 ;
316 [label="X[7] <= 3.288\nmse = 0.769\nsamples = 8\nvalue = 20.807"] ;
315 -> 316 ;
317 [label="X[0] <= 7.247\nmse = 0.436\nsamples = 6\nvalue = 20.47"] ;
316 -> 317 ;
318 [label="X[6] <= 68.1\nmse = 0.262\nsamples = 3\nvalue = 20.157"] ;
317 -> 318 ;
319 [label="mse = 0.0\nsamples = 1\nvalue = 20.6"] ;
318 -> 319 ;
320 [label="X[7] <= 2.917\nmse = 0.002\nsamples = 2\nvalue = 19.567"] ;
318 -> 320 ;
321 [label="mse = 0.0\nsamples = 1\nvalue = 19.5"] ;
320 -> 321 ;
322 [label="mse = 0.0\nsamples = 1\nvalue = 19.6"] ;
320 -> 322 ;
323 [label="X[11] <= 337.435\nmse = 0.08\nsamples = 3\nvalue = 21.2"] ;
317 -> 323 ;
324 [label="mse = 0.0\nsamples = 1\nvalue = 20.8"] ;
323 -> 324 ;
325 [label="mse = 0.0\nsamples = 2\nvalue = 21.4"] ;
323 -> 325 ;
326 [label="X[5] <= 6.277\nmse = 0.608\nsamples = 2\nvalue = 21.65"] ;
316 -> 326 ;
327 [label="mse = 0.0\nsamples = 1\nvalue = 23.0"] ;
326 -> 327 ;
328 [label="mse = 0.0\nsamples = 1\nvalue = 21.2"] ;
326 -> 328 ;
329 [label="X[12] <= 11.43\nmse = 0.416\nsamples = 4\nvalue = 21.471"] ;
315 -> 329 ;
330 [label="mse = 0.0\nsamples = 1\nvalue = 20.8"] ;
329 -> 330 ;
331 [label="X[6] <= 86.15\nmse = 0.137\nsamples = 3\nvalue = 21.975"] ;
329 -> 331 ;
332 [label="mse = 0.0\nsamples = 1\nvalue = 22.6"] ;
331 -> 332 ;
333 [label="X[5] <= 5.679\nmse = 0.009\nsamples = 2\nvalue = 21.767"] ;
331 -> 333 ;
334 [label="mse = 0.0\nsamples = 1\nvalue = 21.9"] ;
333 -> 334 ;
335 [label="mse = 0.0\nsamples = 1\nvalue = 21.7"] ;
333 -> 335 ;
336 [label="X[8] <= 14.0\nmse = 0.002\nsamples = 2\nvalue = 23.05"] ;
312 -> 336 ;
337 [label="mse = 0.0\nsamples = 1\nvalue = 23.0"] ;
336 -> 337 ;
338 [label="mse = 0.0\nsamples = 1\nvalue = 23.1"] ;
336 -> 338 ;
339 [label="X[5] <= 5.758\nmse = 1.374\nsamples = 5\nvalue = 17.84"] ;
269 -> 339 ;
340 [label="mse = 0.0\nsamples = 1\nvalue = 20.1"] ;
339 -> 340 ;
341 [label="X[7] <= 2.236\nmse = 0.122\nsamples = 4\nvalue = 17.275"] ;
339 -> 341 ;
342 [label="X[10] <= 20.7\nmse = 0.022\nsamples = 2\nvalue = 16.95"] ;
341 -> 342 ;
343 [label="mse = 0.0\nsamples = 1\nvalue = 16.8"] ;
342 -> 343 ;
344 [label="mse = -0.0\nsamples = 1\nvalue = 17.1"] ;
342 -> 344 ;
345 [label="X[4] <= 0.625\nmse = 0.01\nsamples = 2\nvalue = 17.6"] ;
341 -> 345 ;
346 [label="mse = 0.0\nsamples = 1\nvalue = 17.5"] ;
345 -> 346 ;
347 [label="mse = -0.0\nsamples = 1\nvalue = 17.7"] ;
345 -> 347 ;
348 [label="X[5] <= 6.03\nmse = 2.878\nsamples = 11\nvalue = 18.706"] ;
216 -> 348 ;
349 [label="X[11] <= 394.415\nmse = 1.106\nsamples = 7\nvalue = 17.62"] ;
348 -> 349 ;
350 [label="X[2] <= 5.495\nmse = 0.418\nsamples = 3\nvalue = 16.76"] ;
349 -> 350 ;
351 [label="mse = 0.0\nsamples = 1\nvalue = 16.0"] ;
350 -> 351 ;
352 [label="X[4] <= 0.434\nmse = 0.056\nsamples = 2\nvalue = 17.267"] ;
350 -> 352 ;
353 [label="mse = 0.0\nsamples = 1\nvalue = 17.6"] ;
352 -> 353 ;
354 [label="mse = 0.0\nsamples = 1\nvalue = 17.1"] ;
352 -> 354 ;
355 [label="X[2] <= 5.63\nmse = 0.314\nsamples = 4\nvalue = 18.48"] ;
349 -> 355 ;
356 [label="X[0] <= 0.022\nmse = 0.027\nsamples = 3\nvalue = 18.75"] ;
355 -> 356 ;
357 [label="mse = 0.0\nsamples = 1\nvalue = 18.9"] ;
356 -> 357 ;
358 [label="X[10] <= 19.95\nmse = 0.01\nsamples = 2\nvalue = 18.6"] ;
356 -> 358 ;
359 [label="mse = 0.0\nsamples = 1\nvalue = 18.7"] ;
358 -> 359 ;
360 [label="mse = -0.0\nsamples = 1\nvalue = 18.5"] ;
358 -> 360 ;
361 [label="mse = -0.0\nsamples = 1\nvalue = 17.4"] ;
355 -> 361 ;
362 [label="X[5] <= 6.294\nmse = 0.588\nsamples = 4\nvalue = 20.517"] ;
348 -> 362 ;
363 [label="X[12] <= 11.275\nmse = 0.026\nsamples = 3\nvalue = 20.18"] ;
362 -> 363 ;
364 [label="mse = 0.0\nsamples = 1\nvalue = 20.5"] ;
363 -> 364 ;
365 [label="mse = -0.0\nsamples = 2\nvalue = 20.1"] ;
363 -> 365 ;
366 [label="mse = 0.0\nsamples = 1\nvalue = 22.2"] ;
362 -> 366 ;
367 [label="X[9] <= 267.0\nmse = 26.705\nsamples = 21\nvalue = 29.419"] ;
95 -> 367 ;
368 [label="X[5] <= 7.47\nmse = 12.19\nsamples = 7\nvalue = 33.825"] ;
367 -> 368 ;
369 [label="X[12] <= 10.42\nmse = 4.767\nsamples = 6\nvalue = 32.982"] ;
368 -> 369 ;
370 [label="X[5] <= 7.377\nmse = 1.581\nsamples = 4\nvalue = 34.783"] ;
369 -> 370 ;
371 [label="X[5] <= 7.22\nmse = 0.937\nsamples = 3\nvalue = 35.475"] ;
370 -> 371 ;
372 [label="mse = 0.0\nsamples = 1\nvalue = 33.8"] ;
371 -> 372 ;
373 [label="X[12] <= 7.36\nmse = 0.002\nsamples = 2\nvalue = 36.033"] ;
371 -> 373 ;
374 [label="mse = 0.0\nsamples = 1\nvalue = 36.1"] ;
373 -> 374 ;
375 [label="mse = 0.0\nsamples = 1\nvalue = 36.0"] ;
373 -> 375 ;
376 [label="mse = -0.0\nsamples = 1\nvalue = 33.4"] ;
370 -> 376 ;
377 [label="X[5] <= 7.171\nmse = 0.022\nsamples = 2\nvalue = 30.82"] ;
369 -> 377 ;
378 [label="mse = -0.0\nsamples = 1\nvalue = 30.7"] ;
377 -> 378 ;
379 [label="mse = -0.0\nsamples = 1\nvalue = 31.0"] ;
377 -> 379 ;
380 [label="mse = -0.0\nsamples = 1\nvalue = 43.1"] ;
368 -> 380 ;
381 [label="X[6] <= 88.9\nmse = 15.871\nsamples = 14\nvalue = 26.637"] ;
367 -> 381 ;
382 [label="X[10] <= 17.6\nmse = 5.987\nsamples = 12\nvalue = 27.944"] ;
381 -> 382 ;
383 [label="X[12] <= 6.215\nmse = 4.22\nsamples = 7\nvalue = 29.26"] ;
382 -> 383 ;
384 [label="mse = 0.0\nsamples = 1\nvalue = 24.8"] ;
383 -> 384 ;
385 [label="X[3] <= 0.5\nmse = 2.234\nsamples = 6\nvalue = 29.756"] ;
383 -> 385 ;
386 [label="X[0] <= 0.073\nmse = 0.678\nsamples = 4\nvalue = 30.82"] ;
385 -> 386 ;
387 [label="X[10] <= 14.6\nmse = 0.036\nsamples = 2\nvalue = 30.167"] ;
386 -> 387 ;
388 [label="mse = 0.0\nsamples = 1\nvalue = 30.3"] ;
387 -> 388 ;
389 [label="mse = 0.0\nsamples = 1\nvalue = 29.9"] ;
387 -> 389 ;
390 [label="X[10] <= 16.3\nmse = 0.04\nsamples = 2\nvalue = 31.8"] ;
386 -> 390 ;
391 [label="mse = 0.0\nsamples = 1\nvalue = 32.0"] ;
390 -> 391 ;
392 [label="mse = -0.0\nsamples = 1\nvalue = 31.6"] ;
390 -> 392 ;
393 [label="X[11] <= 375.95\nmse = 0.992\nsamples = 2\nvalue = 28.425"] ;
385 -> 393 ;
394 [label="mse = 0.0\nsamples = 1\nvalue = 29.0"] ;
393 -> 394 ;
395 [label="mse = -0.0\nsamples = 1\nvalue = 26.7"] ;
393 -> 395 ;
396 [label="X[9] <= 307.0\nmse = 1.233\nsamples = 5\nvalue = 25.75"] ;
382 -> 396 ;
397 [label="X[12] <= 7.5\nmse = 0.49\nsamples = 2\nvalue = 24.3"] ;
396 -> 397 ;
398 [label="mse = 0.0\nsamples = 1\nvalue = 23.6"] ;
397 -> 398 ;
399 [label="mse = 0.0\nsamples = 1\nvalue = 25.0"] ;
397 -> 399 ;
400 [label="X[0] <= 0.153\nmse = 0.027\nsamples = 3\nvalue = 26.475"] ;
396 -> 400 ;
401 [label="X[12] <= 6.78\nmse = 0.002\nsamples = 2\nvalue = 26.567"] ;
400 -> 401 ;
402 [label="mse = 0.0\nsamples = 1\nvalue = 26.6"] ;
401 -> 402 ;
403 [label="mse = -0.0\nsamples = 1\nvalue = 26.5"] ;
401 -> 403 ;
404 [label="mse = 0.0\nsamples = 1\nvalue = 26.2"] ;
400 -> 404 ;
405 [label="X[7] <= 1.853\nmse = 10.889\nsamples = 2\nvalue = 19.667"] ;
381 -> 405 ;
406 [label="mse = 0.0\nsamples = 1\nvalue = 15.0"] ;
405 -> 406 ;
407 [label="mse = 0.0\nsamples = 1\nvalue = 22.0"] ;
405 -> 407 ;
408 [label="X[0] <= 5.769\nmse = 17.13\nsamples = 105\nvalue = 14.807"] ;
94 -> 408 ;
409 [label="X[7] <= 1.906\nmse = 10.015\nsamples = 57\nvalue = 17.234"] ;
408 -> 409 ;
410 [label="X[0] <= 0.254\nmse = 7.329\nsamples = 17\nvalue = 14.828"] ;
409 -> 410 ;
411 [label="X[5] <= 5.434\nmse = 8.399\nsamples = 5\nvalue = 12.375"] ;
410 -> 411 ;
412 [label="X[5] <= 5.253\nmse = 0.303\nsamples = 2\nvalue = 7.55"] ;
411 -> 412 ;
413 [label="mse = 0.0\nsamples = 1\nvalue = 8.1"] ;
412 -> 413 ;
414 [label="mse = 0.0\nsamples = 1\nvalue = 7.0"] ;
412 -> 414 ;
415 [label="X[12] <= 18.065\nmse = 0.751\nsamples = 3\nvalue = 13.983"] ;
411 -> 415 ;
416 [label="mse = 0.0\nsamples = 1\nvalue = 15.2"] ;
415 -> 416 ;
417 [label="X[9] <= 574.0\nmse = 0.017\nsamples = 2\nvalue = 13.375"] ;
415 -> 417 ;
418 [label="mse = -0.0\nsamples = 1\nvalue = 13.3"] ;
417 -> 418 ;
419 [label="mse = 0.0\nsamples = 1\nvalue = 13.6"] ;
417 -> 419 ;
420 [label="X[0] <= 2.35\nmse = 2.661\nsamples = 12\nvalue = 15.982"] ;
410 -> 420 ;
421 [label="X[6] <= 99.4\nmse = 1.492\nsamples = 6\nvalue = 16.98"] ;
420 -> 421 ;
422 [label="X[0] <= 0.292\nmse = 0.549\nsamples = 4\nvalue = 17.475"] ;
421 -> 422 ;
423 [label="mse = 0.0\nsamples = 1\nvalue = 16.2"] ;
422 -> 423 ;
424 [label="X[12] <= 16.925\nmse = 0.01\nsamples = 3\nvalue = 17.9"] ;
422 -> 424 ;
425 [label="mse = 0.0\nsamples = 1\nvalue = 18.0"] ;
424 -> 425 ;
426 [label="mse = -0.0\nsamples = 2\nvalue = 17.8"] ;
424 -> 426 ;
427 [label="X[4] <= 0.748\nmse = 0.36\nsamples = 2\nvalue = 15.0"] ;
421 -> 427 ;
428 [label="mse = 0.0\nsamples = 1\nvalue = 14.4"] ;
427 -> 428 ;
429 [label="mse = 0.0\nsamples = 1\nvalue = 15.6"] ;
427 -> 429 ;
430 [label="X[0] <= 2.59\nmse = 0.88\nsamples = 6\nvalue = 14.557"] ;
420 -> 430 ;
431 [label="X[11] <= 282.31\nmse = 0.282\nsamples = 3\nvalue = 13.825"] ;
430 -> 431 ;
432 [label="X[7] <= 1.578\nmse = 0.109\nsamples = 2\nvalue = 13.567"] ;
431 -> 432 ;
433 [label="mse = 0.0\nsamples = 1\nvalue = 13.8"] ;
432 -> 433 ;
434 [label="mse = -0.0\nsamples = 1\nvalue = 13.1"] ;
432 -> 434 ;
435 [label="mse = 0.0\nsamples = 1\nvalue = 14.6"] ;
431 -> 435 ;
436 [label="X[0] <= 3.134\nmse = 0.009\nsamples = 3\nvalue = 15.533"] ;
430 -> 436 ;
437 [label="mse = 0.0\nsamples = 1\nvalue = 15.4"] ;
436 -> 437 ;
438 [label="mse = -0.0\nsamples = 2\nvalue = 15.6"] ;
436 -> 438 ;
439 [label="X[11] <= 377.33\nmse = 7.717\nsamples = 40\nvalue = 18.237"] ;
409 -> 439 ;
440 [label="X[10] <= 20.6\nmse = 4.824\nsamples = 13\nvalue = 15.924"] ;
439 -> 440 ;
441 [label="X[0] <= 4.587\nmse = 3.631\nsamples = 9\nvalue = 16.715"] ;
440 -> 441 ;
442 [label="X[11] <= 341.77\nmse = 1.038\nsamples = 5\nvalue = 18.82"] ;
441 -> 442 ;
443 [label="X[7] <= 2.509\nmse = 0.407\nsamples = 3\nvalue = 19.5"] ;
442 -> 443 ;
444 [label="mse = 0.0\nsamples = 1\nvalue = 20.4"] ;
443 -> 444 ;
445 [label="X[11] <= 176.65\nmse = 0.002\nsamples = 2\nvalue = 19.05"] ;
443 -> 445 ;
446 [label="mse = 0.0\nsamples = 1\nvalue = 19.0"] ;
445 -> 446 ;
447 [label="mse = 0.0\nsamples = 1\nvalue = 19.1"] ;
445 -> 447 ;
448 [label="X[10] <= 18.45\nmse = 0.25\nsamples = 2\nvalue = 17.8"] ;
442 -> 448 ;
449 [label="mse = 0.0\nsamples = 1\nvalue = 18.3"] ;
448 -> 449 ;
450 [label="mse = 0.0\nsamples = 1\nvalue = 17.3"] ;
448 -> 450 ;
451 [label="X[5] <= 6.678\nmse = 0.753\nsamples = 4\nvalue = 15.4"] ;
441 -> 451 ;
452 [label="X[11] <= 227.74\nmse = 0.244\nsamples = 3\nvalue = 14.8"] ;
451 -> 452 ;
453 [label="X[12] <= 17.175\nmse = 0.01\nsamples = 2\nvalue = 14.2"] ;
452 -> 453 ;
454 [label="mse = 0.0\nsamples = 1\nvalue = 14.3"] ;
453 -> 454 ;
455 [label="mse = 0.0\nsamples = 1\nvalue = 14.1"] ;
453 -> 455 ;
456 [label="mse = 0.0\nsamples = 1\nvalue = 15.2"] ;
452 -> 456 ;
457 [label="mse = 0.0\nsamples = 1\nvalue = 16.4"] ;
451 -> 457 ;
458 [label="X[6] <= 95.95\nmse = 0.042\nsamples = 4\nvalue = 13.35"] ;
440 -> 458 ;
459 [label="X[12] <= 23.03\nmse = 0.003\nsamples = 2\nvalue = 13.15"] ;
458 -> 459 ;
460 [label="mse = 0.0\nsamples = 1\nvalue = 13.1"] ;
459 -> 460 ;
461 [label="mse = 0.0\nsamples = 1\nvalue = 13.2"] ;
459 -> 461 ;
462 [label="X[0] <= 1.432\nmse = 0.003\nsamples = 2\nvalue = 13.55"] ;
458 -> 462 ;
463 [label="mse = 0.0\nsamples = 1\nvalue = 13.6"] ;
462 -> 463 ;
464 [label="mse = -0.0\nsamples = 1\nvalue = 13.5"] ;
462 -> 464 ;
465 [label="X[10] <= 20.95\nmse = 5.909\nsamples = 27\nvalue = 19.151"] ;
439 -> 465 ;
466 [label="X[5] <= 6.263\nmse = 5.401\nsamples = 24\nvalue = 19.628"] ;
465 -> 466 ;
467 [label="X[12] <= 17.59\nmse = 4.494\nsamples = 21\nvalue = 19.964"] ;
466 -> 467 ;
468 [label="X[4] <= 0.583\nmse = 0.337\nsamples = 10\nvalue = 18.881"] ;
467 -> 468 ;
469 [label="X[6] <= 84.95\nmse = 0.176\nsamples = 8\nvalue = 19.117"] ;
468 -> 469 ;
470 [label="X[7] <= 5.06\nmse = 0.052\nsamples = 3\nvalue = 19.625"] ;
469 -> 470 ;
471 [label="X[7] <= 3.533\nmse = 0.002\nsamples = 2\nvalue = 19.85"] ;
470 -> 471 ;
472 [label="mse = 0.0\nsamples = 1\nvalue = 19.9"] ;
471 -> 472 ;
473 [label="mse = -0.0\nsamples = 1\nvalue = 19.8"] ;
471 -> 473 ;
474 [label="mse = 0.0\nsamples = 1\nvalue = 19.4"] ;
470 -> 474 ;
475 [label="X[10] <= 20.0\nmse = 0.045\nsamples = 5\nvalue = 18.862"] ;
469 -> 475 ;
476 [label="X[0] <= 0.196\nmse = 0.004\nsamples = 4\nvalue = 18.786"] ;
475 -> 476 ;
477 [label="X[4] <= 0.535\nmse = 0.002\nsamples = 3\nvalue = 18.82"] ;
476 -> 477 ;
478 [label="mse = 0.0\nsamples = 1\nvalue = 18.9"] ;
477 -> 478 ;
479 [label="mse = -0.0\nsamples = 2\nvalue = 18.8"] ;
477 -> 479 ;
480 [label="mse = -0.0\nsamples = 1\nvalue = 18.7"] ;
476 -> 480 ;
481 [label="mse = -0.0\nsamples = 1\nvalue = 19.4"] ;
475 -> 481 ;
482 [label="X[11] <= 395.73\nmse = 0.152\nsamples = 2\nvalue = 18.175"] ;
468 -> 482 ;
483 [label="mse = 0.0\nsamples = 1\nvalue = 18.4"] ;
482 -> 483 ;
484 [label="mse = 0.0\nsamples = 1\nvalue = 17.5"] ;
482 -> 484 ;
485 [label="X[4] <= 0.469\nmse = 6.266\nsamples = 11\nvalue = 20.982"] ;
467 -> 485 ;
486 [label="mse = 0.0\nsamples = 1\nvalue = 16.6"] ;
485 -> 486 ;
487 [label="X[1] <= 6.25\nmse = 4.2\nsamples = 10\nvalue = 21.567"] ;
485 -> 487 ;
488 [label="X[11] <= 394.265\nmse = 2.156\nsamples = 9\nvalue = 21.171"] ;
487 -> 488 ;
489 [label="X[6] <= 87.7\nmse = 1.253\nsamples = 4\nvalue = 22.214"] ;
488 -> 489 ;
490 [label="X[9] <= 334.0\nmse = 0.108\nsamples = 3\nvalue = 22.9"] ;
489 -> 490 ;
491 [label="mse = 0.0\nsamples = 1\nvalue = 22.5"] ;
490 -> 491 ;
492 [label="X[2] <= 13.895\nmse = 0.002\nsamples = 2\nvalue = 23.167"] ;
490 -> 492 ;
493 [label="mse = 0.0\nsamples = 1\nvalue = 23.1"] ;
492 -> 493 ;
494 [label="mse = 0.0\nsamples = 1\nvalue = 23.2"] ;
492 -> 494 ;
495 [label="mse = 0.0\nsamples = 1\nvalue = 20.5"] ;
489 -> 495 ;
496 [label="X[5] <= 5.894\nmse = 0.885\nsamples = 5\nvalue = 20.129"] ;
488 -> 496 ;
497 [label="X[6] <= 80.75\nmse = 0.022\nsamples = 3\nvalue = 19.54"] ;
496 -> 497 ;
498 [label="mse = 0.0\nsamples = 1\nvalue = 19.7"] ;
497 -> 498 ;
499 [label="X[11] <= 395.455\nmse = 0.009\nsamples = 2\nvalue = 19.433"] ;
497 -> 499 ;
500 [label="mse = 0.0\nsamples = 1\nvalue = 19.3"] ;
499 -> 500 ;
501 [label="mse = 0.0\nsamples = 1\nvalue = 19.5"] ;
499 -> 501 ;
502 [label="X[6] <= 92.55\nmse = 0.01\nsamples = 2\nvalue = 21.6"] ;
496 -> 502 ;
503 [label="mse = 0.0\nsamples = 1\nvalue = 21.7"] ;
502 -> 503 ;
504 [label="mse = -0.0\nsamples = 1\nvalue = 21.5"] ;
502 -> 504 ;
505 [label="mse = -0.0\nsamples = 1\nvalue = 27.1"] ;
487 -> 505 ;
506 [label="X[0] <= 2.548\nmse = 0.496\nsamples = 3\nvalue = 15.933"] ;
466 -> 506 ;
507 [label="mse = 0.0\nsamples = 1\nvalue = 15.0"] ;
506 -> 507 ;
508 [label="X[4] <= 0.664\nmse = 0.09\nsamples = 2\nvalue = 16.4"] ;
506 -> 508 ;
509 [label="mse = 0.0\nsamples = 1\nvalue = 16.7"] ;
508 -> 509 ;
510 [label="mse = 0.0\nsamples = 1\nvalue = 16.1"] ;
508 -> 510 ;
511 [label="X[7] <= 1.973\nmse = 1.346\nsamples = 3\nvalue = 16.7"] ;
465 -> 511 ;
512 [label="mse = 0.0\nsamples = 1\nvalue = 17.4"] ;
511 -> 512 ;
513 [label="X[4] <= 0.581\nmse = 0.422\nsamples = 2\nvalue = 14.95"] ;
511 -> 513 ;
514 [label="mse = 0.0\nsamples = 1\nvalue = 15.6"] ;
513 -> 514 ;
515 [label="mse = 0.0\nsamples = 1\nvalue = 14.3"] ;
513 -> 515 ;
516 [label="X[12] <= 25.295\nmse = 11.301\nsamples = 48\nvalue = 12.127"] ;
408 -> 516 ;
517 [label="X[5] <= 5.852\nmse = 8.495\nsamples = 34\nvalue = 13.212"] ;
516 -> 517 ;
518 [label="X[12] <= 17.135\nmse = 3.853\nsamples = 9\nvalue = 11.333"] ;
517 -> 518 ;
519 [label="mse = 0.0\nsamples = 1\nvalue = 15.1"] ;
518 -> 519 ;
520 [label="X[0] <= 23.426\nmse = 1.927\nsamples = 8\nvalue = 10.754"] ;
518 -> 520 ;
521 [label="X[0] <= 7.912\nmse = 0.984\nsamples = 7\nvalue = 11.2"] ;
520 -> 521 ;
522 [label="mse = 0.0\nsamples = 1\nvalue = 8.5"] ;
521 -> 522 ;
523 [label="X[5] <= 5.691\nmse = 0.28\nsamples = 6\nvalue = 11.47"] ;
521 -> 523 ;
524 [label="X[11] <= 383.56\nmse = 0.056\nsamples = 5\nvalue = 11.712"] ;
523 -> 524 ;
525 [label="X[5] <= 5.434\nmse = 0.01\nsamples = 3\nvalue = 11.88"] ;
524 -> 525 ;
526 [label="X[7] <= 1.639\nmse = 0.002\nsamples = 2\nvalue = 11.925"] ;
525 -> 526 ;
527 [label="mse = 0.0\nsamples = 1\nvalue = 11.9"] ;
526 -> 527 ;
528 [label="mse = 0.0\nsamples = 1\nvalue = 12.0"] ;
526 -> 528 ;
529 [label="mse = -0.0\nsamples = 1\nvalue = 11.7"] ;
525 -> 529 ;
530 [label="X[6] <= 99.45\nmse = 0.009\nsamples = 2\nvalue = 11.433"] ;
524 -> 530 ;
531 [label="mse = 0.0\nsamples = 1\nvalue = 11.5"] ;
530 -> 531 ;
532 [label="mse = 0.0\nsamples = 1\nvalue = 11.3"] ;
530 -> 532 ;
533 [label="mse = 0.0\nsamples = 1\nvalue = 10.5"] ;
523 -> 533 ;
534 [label="mse = 0.0\nsamples = 1\nvalue = 8.3"] ;
520 -> 534 ;
535 [label="X[6] <= 99.4\nmse = 8.428\nsamples = 25\nvalue = 13.9"] ;
517 -> 535 ;
536 [label="X[4] <= 0.755\nmse = 3.513\nsamples = 21\nvalue = 13.416"] ;
535 -> 536 ;
537 [label="X[6] <= 78.4\nmse = 1.977\nsamples = 20\nvalue = 13.029"] ;
536 -> 537 ;
538 [label="mse = 0.0\nsamples = 1\nvalue = 8.4"] ;
537 -> 538 ;
539 [label="X[12] <= 23.835\nmse = 1.368\nsamples = 19\nvalue = 13.17"] ;
537 -> 539 ;
540 [label="X[5] <= 6.901\nmse = 0.916\nsamples = 16\nvalue = 13.386"] ;
539 -> 540 ;
541 [label="X[7] <= 2.242\nmse = 0.619\nsamples = 15\nvalue = 13.493"] ;
540 -> 541 ;
542 [label="X[11] <= 384.11\nmse = 0.527\nsamples = 11\nvalue = 13.235"] ;
541 -> 542 ;
543 [label="X[7] <= 2.178\nmse = 0.654\nsamples = 6\nvalue = 13.65"] ;
542 -> 543 ;
544 [label="X[6] <= 96.0\nmse = 0.056\nsamples = 4\nvalue = 14.114"] ;
543 -> 544 ;
545 [label="X[6] <= 93.8\nmse = 0.019\nsamples = 3\nvalue = 14.033"] ;
544 -> 545 ;
546 [label="mse = 0.0\nsamples = 1\nvalue = 13.9"] ;
545 -> 546 ;
547 [label="X[5] <= 6.42\nmse = 0.002\nsamples = 2\nvalue = 14.167"] ;
545 -> 547 ;
548 [label="mse = 0.0\nsamples = 1\nvalue = 14.2"] ;
547 -> 548 ;
549 [label="mse = -0.0\nsamples = 1\nvalue = 14.1"] ;
547 -> 549 ;
550 [label="mse = 0.0\nsamples = 1\nvalue = 14.6"] ;
544 -> 550 ;
551 [label="X[11] <= 202.42\nmse = 0.376\nsamples = 2\nvalue = 12.567"] ;
543 -> 551 ;
552 [label="mse = 0.0\nsamples = 1\nvalue = 11.7"] ;
551 -> 552 ;
553 [label="mse = -0.0\nsamples = 1\nvalue = 13.0"] ;
551 -> 553 ;
554 [label="X[12] <= 16.78\nmse = 0.056\nsamples = 5\nvalue = 12.82"] ;
542 -> 554 ;
555 [label="X[6] <= 95.65\nmse = 0.002\nsamples = 2\nvalue = 12.66"] ;
554 -> 555 ;
556 [label="mse = 0.0\nsamples = 1\nvalue = 12.7"] ;
555 -> 556 ;
557 [label="mse = -0.0\nsamples = 1\nvalue = 12.6"] ;
555 -> 557 ;
558 [label="X[6] <= 96.1\nmse = 0.058\nsamples = 3\nvalue = 12.98"] ;
554 -> 558 ;
559 [label="mse = 0.0\nsamples = 1\nvalue = 12.5"] ;
558 -> 559 ;
560 [label="mse = -0.0\nsamples = 2\nvalue = 13.1"] ;
558 -> 560 ;
561 [label="X[0] <= 9.421\nmse = 0.265\nsamples = 4\nvalue = 14.138"] ;
541 -> 561 ;
562 [label="X[12] <= 17.785\nmse = 0.095\nsamples = 3\nvalue = 13.883"] ;
561 -> 562 ;
563 [label="X[11] <= 1.91\nmse = 0.003\nsamples = 2\nvalue = 13.45"] ;
562 -> 563 ;
564 [label="mse = 0.0\nsamples = 1\nvalue = 13.4"] ;
563 -> 564 ;
565 [label="mse = 0.0\nsamples = 1\nvalue = 13.5"] ;
563 -> 565 ;
566 [label="mse = 0.0\nsamples = 1\nvalue = 14.1"] ;
562 -> 566 ;
567 [label="mse = 0.0\nsamples = 1\nvalue = 14.9"] ;
561 -> 567 ;
568 [label="mse = 0.0\nsamples = 1\nvalue = 10.4"] ;
540 -> 568 ;
569 [label="X[7] <= 1.978\nmse = 1.845\nsamples = 3\nvalue = 11.6"] ;
539 -> 569 ;
570 [label="mse = 0.0\nsamples = 1\nvalue = 9.5"] ;
569 -> 570 ;
571 [label="X[0] <= 8.532\nmse = 0.5\nsamples = 2\nvalue = 12.3"] ;
569 -> 571 ;
572 [label="mse = 0.0\nsamples = 1\nvalue = 13.3"] ;
571 -> 572 ;
573 [label="mse = -0.0\nsamples = 1\nvalue = 11.8"] ;
571 -> 573 ;
574 [label="mse = 0.0\nsamples = 1\nvalue = 17.8"] ;
536 -> 574 ;
575 [label="X[5] <= 6.755\nmse = 31.707\nsamples = 4\nvalue = 18.375"] ;
535 -> 575 ;
576 [label="X[0] <= 10.342\nmse = 5.269\nsamples = 3\nvalue = 15.333"] ;
575 -> 576 ;
577 [label="mse = 0.0\nsamples = 1\nvalue = 12.1"] ;
576 -> 577 ;
578 [label="X[4] <= 0.657\nmse = 0.062\nsamples = 2\nvalue = 16.95"] ;
576 -> 578 ;
579 [label="mse = 0.0\nsamples = 1\nvalue = 17.2"] ;
578 -> 579 ;
580 [label="mse = 0.0\nsamples = 1\nvalue = 16.7"] ;
578 -> 580 ;
581 [label="mse = 0.0\nsamples = 1\nvalue = 27.5"] ;
575 -> 581 ;
582 [label="X[12] <= 33.18\nmse = 7.268\nsamples = 14\nvalue = 9.233"] ;
516 -> 582 ;
583 [label="X[5] <= 5.378\nmse = 2.497\nsamples = 12\nvalue = 8.537"] ;
582 -> 583 ;
584 [label="X[12] <= 30.72\nmse = 1.592\nsamples = 7\nvalue = 9.121"] ;
583 -> 584 ;
585 [label="X[5] <= 4.51\nmse = 0.366\nsamples = 5\nvalue = 9.85"] ;
584 -> 585 ;
586 [label="mse = 0.0\nsamples = 1\nvalue = 8.8"] ;
585 -> 586 ;
587 [label="X[0] <= 12.956\nmse = 0.114\nsamples = 4\nvalue = 10.112"] ;
585 -> 587 ;
588 [label="mse = 0.0\nsamples = 1\nvalue = 9.7"] ;
587 -> 588 ;
589 [label="X[0] <= 19.364\nmse = 0.018\nsamples = 3\nvalue = 10.36"] ;
587 -> 589 ;
590 [label="mse = 0.0\nsamples = 1\nvalue = 10.2"] ;
589 -> 590 ;
591 [label="X[4] <= 0.69\nmse = 0.002\nsamples = 2\nvalue = 10.467"] ;
589 -> 591 ;
592 [label="mse = 0.0\nsamples = 1\nvalue = 10.4"] ;
591 -> 592 ;
593 [label="mse = 0.0\nsamples = 1\nvalue = 10.5"] ;
591 -> 593 ;
594 [label="X[6] <= 93.8\nmse = 0.01\nsamples = 2\nvalue = 7.3"] ;
584 -> 594 ;
595 [label="mse = 0.0\nsamples = 1\nvalue = 7.4"] ;
594 -> 595 ;
596 [label="mse = -0.0\nsamples = 1\nvalue = 7.2"] ;
594 -> 596 ;
597 [label="X[12] <= 29.51\nmse = 1.396\nsamples = 5\nvalue = 6.9"] ;
583 -> 597 ;
598 [label="X[6] <= 88.1\nmse = 0.309\nsamples = 3\nvalue = 7.733"] ;
597 -> 598 ;
599 [label="mse = 0.0\nsamples = 1\nvalue = 8.5"] ;
598 -> 599 ;
600 [label="X[6] <= 95.4\nmse = 0.023\nsamples = 2\nvalue = 7.35"] ;
598 -> 600 ;
601 [label="mse = 0.0\nsamples = 1\nvalue = 7.5"] ;
600 -> 601 ;
602 [label="mse = 0.0\nsamples = 1\nvalue = 7.2"] ;
600 -> 602 ;
603 [label="X[12] <= 30.28\nmse = 0.422\nsamples = 2\nvalue = 5.65"] ;
597 -> 603 ;
604 [label="mse = 0.0\nsamples = 1\nvalue = 6.3"] ;
603 -> 604 ;
605 [label="mse = -0.0\nsamples = 1\nvalue = 5.0"] ;
603 -> 605 ;
606 [label="X[11] <= 212.845\nmse = 4.202\nsamples = 2\nvalue = 15.85"] ;
582 -> 606 ;
607 [label="mse = 0.0\nsamples = 1\nvalue = 17.9"] ;
606 -> 607 ;
608 [label="mse = 0.0\nsamples = 1\nvalue = 13.8"] ;
606 -> 608 ;
}